// The result of 3 hours of training, in JSON.

var trainedBrain = JSON.stringify(
    {"levels":
        [
            {
                "inputs":[0,0,0,0,0,0,0,0,0,0,0,0,0,0,0,0,0.17852598519232876,0.26348654730002574,0.2885826346277627,0.26348654730002574,0.17852598519232876,0,0,0,0],
                "outputs":[0,0,0,0,1,1],
                "biases":[0.1515974620517147,0.22485929112434055,0.21280774570639444,0.438776664503027,0.06375512441664627,-0.13312129686006027],
                "weights":[
                        [-0.050844461674917574,-0.11431302444866466,0.2956534469485871,0.1629006918574882,0.15562681627799665,-0.48548251775131024],
                        [-0.3205201850353465,-0.4565084917808936,0.11653079186361076,-0.11113951097238652,-0.3186244161501308,-0.15843110850501796],
                        [-0.211863885488751,0.11763490571108448,0.163899938236028,-0.05290116424043292,-0.0072211901998571245,-0.17509618826820877],
                        [-0.14600901175472583,-0.5382428365250066,0.20313259064415481,0.29672468781125655,-0.20310718649804627,0.18112213680794687],
                        [-0.22034569250518948,-0.012171877207716855,0.14096286989863688,0.18082789113095793,-0.2541587069774948,-0.21085639562935282],
                        [-0.43167035557534955,-0.12476366053230514,-0.03312951813456576,-0.29850008722020605,0.0944479382574568,0.2180112741636963],
                        [0.20762584841826176,0.04075450475062796,-0.10267612153695627,-0.08316671625277336,-0.26131735143368634,0.062094491880039314],
                        [-0.24519723614940106,0.13719376554974122,0.4415602337253409,-0.0929817171848472,-0.3203821183805538,0.022073442039289508],
                        [-0.18205024797076458,-0.17236741359305877,0.4902664819269229,-0.06691594668917455,-0.13918146205263784,-0.23498385929413618],
                        [-0.03244974229341356,0.09240347822002933,-0.10927926395367621,0.14077367880017289,-0.017850095034203914,0.2420443229238676],
                        [-0.1514172850581901,-0.291659016993729,0.044138722624246465,0.39931640711598493,0.1466546197754374,0.10344511445712748],
                        [-0.02497210880364988,-0.3515051470856254,0.06389567113632989,-0.13452061642573518,0.41601719005641813,0.16343400761650156],
                        [-0.10205755115158244,-0.08465855146617698,0.22345571307702017,-0.3509524966485891,-0.13723507525182366,-0.11277392256467855],
                        [0.44766572703694707,0.3017591747936367,-0.14941531483260906,-0.3293365409937471,0.05576961104711765,0.295806736116903],
                        [0.17024697883513087,-0.22472279766654615,0.15343437112911282,-0.05525608690424307,-0.09551294311486722,0.2947810949980293],
                        [0.10575110396352251,0.40509998271046227,-0.08458920743255488,-0.16038382935528223,-0.0732958573571894,0.14527255122552996],
                        [-0.46181709566356083,0.2877216623656417,-0.2786500488670426,0.022189009908996422,0.324463655508339,0.1581368815232051],
                        [0.20376391696892587,0.16465654219242626,-0.09146315823738589,0.18783634216101716,0.05111858707940446,-0.2230582982589976],
                        [0.0742662422926609,0.18166523097928558,-0.2610197925850303,-0.28441867350616806,0.2786369300079158,-0.30359677842865185],
                        [-0.0599581932211035,0.26661647635688207,-0.12169671528439843,0.35751392488990685,0.05569329922362822,0.2652900579315913],
                        [-0.02865414088385103,-0.02363083677251614,-0.09085935509801908,0.39579563215947944,0.042037966854180195,-0.06131226527043752],
                        [0.04400644998793245,0.19721000601576616,0.04716661753030648,0.21351748015265626,-0.1319838625627716,-0.01773107694924674],
                        [0.020867140265922034,-0.04913240349123171,0.12124004681066494,0.10425149364471623,-0.3107378399046513,0.030008293776476125],
                        [0.032818834262213145,0.05060876179219355,-0.40225429380616606,0.06639438555111404,-0.03285345695974643,-0.040956295654284436],
                        [0.17728221442822328,-0.2965408730638459,0.3164200860541759,0.003493774202665379,0.08960027810195631,0.10214893576077251]
                ]
            },
            {
                "inputs":[0,0,0,0,1,1],
                "outputs":[1,1,1,0],
                "biases":[-0.19757995730439304,-0.024502632651493664,-0.32209938531361565,0.3936971673210029],
                "weights":[
                        [-0.04792852237766397,0.3459372945464122,-0.30690015729286285,-0.4080292221442168],
                        [0.17699132377672933,0.1576437015899331,-0.2604197353339324,0.20229388721640534],
                        [-0.08389602806659083,0.3239442685691334,0.24217428486829337,-0.030253311096470323],
                        [-0.2970188700073619,-0.35996643053409993,0.05947596618390018,-0.18772122739285865],
                        [0.14397644802637266,-0.08415044891323513,0.08614960636244613,0.29227372850890243],
                        [0.08444194607447204,0.15773069296970169,-0.23852804895565186,-0.11994893199545326]
                ]
            }
        ]
    }
);